Language model created by QuickLM on Sat Sep 30 22:05:10 EDT 2017
Copyright (c) 1996-2010 Carnegie Mellon University and Alexander I. Rudnicky

The model is in standard ARPA format, designed by Doug Paul while he was at MITRE.

The code that was used to produce this language model is available in Open Source.
Please visit http://www.speech.cs.cmu.edu/tools/ for more information

The (fixed) discount mass is 0.5. The backoffs are computed using the ratio method.
This model based on a corpus of 6 sentences and 18 words

\data\
ngram 1=18
ngram 2=23
ngram 3=20

\1-grams:
-1.8451 9P -0.2621
-1.0669 </s> -0.3010
-1.0669 <s> -0.2621
-1.8451 APDM -0.2621
-1.8451 APDYANMICS -0.2621
-1.8451 AT -0.2948
-1.5441 CHECK -0.2820
-1.8451 DAY -0.2948
-1.8451 DEPLOYMENT -0.2621
-1.5441 FOR -0.2755
-1.8451 JENKINS -0.2621
-1.5441 LAUNCH -0.2884
-1.5441 LOGS -0.2884
-1.8451 PATCH -0.2948
-1.5441 START -0.2884
-1.3680 THE -0.2820
-1.8451 TODAY -0.2621
-1.8451 YESTERDAY -0.2948

\2-grams:
-0.3010 9P </s> -0.3010
-0.7782 <s> CHECK 0.0000
-0.7782 <s> LAUNCH 0.0000
-0.7782 <s> START 0.0000
-0.3010 APDM </s> -0.3010
-0.3010 APDYANMICS </s> -0.3010
-0.3010 AT 9P 0.0000
-0.3010 CHECK THE -0.1249
-0.3010 DAY TODAY 0.0000
-0.3010 DEPLOYMENT </s> -0.3010
-0.6021 FOR THE -0.2218
-0.6021 FOR YESTERDAY 0.0000
-0.3010 JENKINS </s> -0.3010
-0.6021 LAUNCH APDM 0.0000
-0.6021 LAUNCH APDYANMICS 0.0000
-0.3010 LOGS FOR 0.0000
-0.3010 PATCH DEPLOYMENT 0.0000
-0.6021 START JENKINS 0.0000
-0.6021 START PATCH 0.0000
-0.7782 THE DAY 0.0000
-0.4771 THE LOGS 0.0000
-0.3010 TODAY </s> -0.3010
-0.3010 YESTERDAY AT 0.0000

\3-grams:
-0.3010 <s> CHECK THE
-0.6021 <s> LAUNCH APDM
-0.6021 <s> LAUNCH APDYANMICS
-0.6021 <s> START JENKINS
-0.6021 <s> START PATCH
-0.3010 AT 9P </s>
-0.3010 CHECK THE LOGS
-0.3010 DAY TODAY </s>
-0.3010 FOR THE DAY
-0.3010 FOR YESTERDAY AT
-0.3010 LAUNCH APDM </s>
-0.3010 LAUNCH APDYANMICS </s>
-0.6021 LOGS FOR THE
-0.6021 LOGS FOR YESTERDAY
-0.3010 PATCH DEPLOYMENT </s>
-0.3010 START JENKINS </s>
-0.3010 START PATCH DEPLOYMENT
-0.3010 THE DAY TODAY
-0.3010 THE LOGS FOR
-0.3010 YESTERDAY AT 9P

\end\
