Language model created by QuickLM on Sat Dec 16 19:28:05 EST 2017
Copyright (c) 1996-2010 Carnegie Mellon University and Alexander I. Rudnicky

The model is in standard ARPA format, designed by Doug Paul while he was at MITRE.

The code that was used to produce this language model is available in Open Source.
Please visit http://www.speech.cs.cmu.edu/tools/ for more information

The (fixed) discount mass is 0.5. The backoffs are computed using the ratio method.
This model based on a corpus of 44 sentences and 43 words

\data\
ngram 1=43
ngram 2=82
ngram 3=41

\1-grams:
-0.7782 </s> -0.3010
-0.7782 <s> -0.2218
-2.4216 A -0.2218
-2.4216 APDM -0.2218
-2.1206 APPLY -0.2218
-2.4216 CAN -0.2218
-2.4216 CANCEL -0.2218
-2.4216 CHECK -0.2218
-2.4216 CORE -0.2218
-2.4216 DEPLOY -0.2218
-2.4216 DEPLOYMENT -0.2218
-2.4216 DEV -0.2218
-2.1206 DEV1 -0.2218
-2.4216 DEV2 -0.2218
-2.4216 DEVELOPMENT -0.2218
-2.4216 DOWN -0.2218
-2.4216 DPL -0.2218
-2.4216 HELLO -0.2218
-2.4216 HELP -0.2218
-2.4216 HOW -0.2218
-2.4216 I -0.2218
-2.4216 IN -0.2218
-2.4216 J2EE -0.2218
-2.4216 JVM -0.2218
-2.4216 LOG -0.2218
-2.4216 LOGS -0.2218
-2.4216 ME -0.2218
-2.4216 NO -0.2218
-2.4216 ONE -0.2218
-2.4216 PATCH -0.2218
-2.4216 PATCHES? -0.2218
-2.4216 PROD -0.2218
-2.4216 QSYS -0.2218
-2.4216 RWXD284 -0.2218
-2.4216 SERVER -0.2218
-2.1206 SERVICE -0.2218
-2.4216 SOME -0.2218
-2.4216 STOP -0.2218
-2.4216 TWO -0.2218
-2.4216 U -0.2218
-2.4216 WITH -0.2218
-2.4216 YES -0.2218
-2.4216 YOU -0.2218

\2-grams:
-1.9445 <s> A 0.0000
-1.9445 <s> APDM 0.0000
-1.6435 <s> APPLY 0.0000
-1.9445 <s> CAN 0.0000
-1.9445 <s> CANCEL 0.0000
-1.9445 <s> CHECK 0.0000
-1.9445 <s> CORE 0.0000
-1.9445 <s> DEPLOY 0.0000
-1.9445 <s> DEPLOYMENT 0.0000
-1.9445 <s> DEV 0.0000
-1.6435 <s> DEV1 0.0000
-1.9445 <s> DEV2 0.0000
-1.9445 <s> DEVELOPMENT 0.0000
-1.9445 <s> DOWN 0.0000
-1.9445 <s> DPL 0.0000
-1.9445 <s> HELLO 0.0000
-1.9445 <s> HELP 0.0000
-1.9445 <s> HOW 0.0000
-1.9445 <s> I 0.0000
-1.9445 <s> IN 0.0000
-1.9445 <s> J2EE 0.0000
-1.9445 <s> JVM 0.0000
-1.9445 <s> LOG 0.0000
-1.9445 <s> LOGS 0.0000
-1.9445 <s> ME 0.0000
-1.9445 <s> NO 0.0000
-1.9445 <s> ONE 0.0000
-1.9445 <s> PATCH 0.0000
-1.9445 <s> PATCHES? 0.0000
-1.9445 <s> PROD 0.0000
-1.9445 <s> QSYS 0.0000
-1.9445 <s> RWXD284 0.0000
-1.9445 <s> SERVER 0.0000
-1.6435 <s> SERVICE 0.0000
-1.9445 <s> SOME 0.0000
-1.9445 <s> STOP 0.0000
-1.9445 <s> TWO 0.0000
-1.9445 <s> U 0.0000
-1.9445 <s> WITH 0.0000
-1.9445 <s> YES 0.0000
-1.9445 <s> YOU 0.0000
-0.3010 A </s> -0.3010
-0.3010 APDM </s> -0.3010
-0.3010 APPLY </s> -0.3010
-0.3010 CAN </s> -0.3010
-0.3010 CANCEL </s> -0.3010
-0.3010 CHECK </s> -0.3010
-0.3010 CORE </s> -0.3010
-0.3010 DEPLOY </s> -0.3010
-0.3010 DEPLOYMENT </s> -0.3010
-0.3010 DEV </s> -0.3010
-0.3010 DEV1 </s> -0.3010
-0.3010 DEV2 </s> -0.3010
-0.3010 DEVELOPMENT </s> -0.3010
-0.3010 DOWN </s> -0.3010
-0.3010 DPL </s> -0.3010
-0.3010 HELLO </s> -0.3010
-0.3010 HELP </s> -0.3010
-0.3010 HOW </s> -0.3010
-0.3010 I </s> -0.3010
-0.3010 IN </s> -0.3010
-0.3010 J2EE </s> -0.3010
-0.3010 JVM </s> -0.3010
-0.3010 LOG </s> -0.3010
-0.3010 LOGS </s> -0.3010
-0.3010 ME </s> -0.3010
-0.3010 NO </s> -0.3010
-0.3010 ONE </s> -0.3010
-0.3010 PATCH </s> -0.3010
-0.3010 PATCHES? </s> -0.3010
-0.3010 PROD </s> -0.3010
-0.3010 QSYS </s> -0.3010
-0.3010 RWXD284 </s> -0.3010
-0.3010 SERVER </s> -0.3010
-0.3010 SERVICE </s> -0.3010
-0.3010 SOME </s> -0.3010
-0.3010 STOP </s> -0.3010
-0.3010 TWO </s> -0.3010
-0.3010 U </s> -0.3010
-0.3010 WITH </s> -0.3010
-0.3010 YES </s> -0.3010
-0.3010 YOU </s> -0.3010

\3-grams:
-0.3010 <s> A </s>
-0.3010 <s> APDM </s>
-0.3010 <s> APPLY </s>
-0.3010 <s> CAN </s>
-0.3010 <s> CANCEL </s>
-0.3010 <s> CHECK </s>
-0.3010 <s> CORE </s>
-0.3010 <s> DEPLOY </s>
-0.3010 <s> DEPLOYMENT </s>
-0.3010 <s> DEV </s>
-0.3010 <s> DEV1 </s>
-0.3010 <s> DEV2 </s>
-0.3010 <s> DEVELOPMENT </s>
-0.3010 <s> DOWN </s>
-0.3010 <s> DPL </s>
-0.3010 <s> HELLO </s>
-0.3010 <s> HELP </s>
-0.3010 <s> HOW </s>
-0.3010 <s> I </s>
-0.3010 <s> IN </s>
-0.3010 <s> J2EE </s>
-0.3010 <s> JVM </s>
-0.3010 <s> LOG </s>
-0.3010 <s> LOGS </s>
-0.3010 <s> ME </s>
-0.3010 <s> NO </s>
-0.3010 <s> ONE </s>
-0.3010 <s> PATCH </s>
-0.3010 <s> PATCHES? </s>
-0.3010 <s> PROD </s>
-0.3010 <s> QSYS </s>
-0.3010 <s> RWXD284 </s>
-0.3010 <s> SERVER </s>
-0.3010 <s> SERVICE </s>
-0.3010 <s> SOME </s>
-0.3010 <s> STOP </s>
-0.3010 <s> TWO </s>
-0.3010 <s> U </s>
-0.3010 <s> WITH </s>
-0.3010 <s> YES </s>
-0.3010 <s> YOU </s>

\end\
